digraph Tree {
node [shape=box] ;
0 [label="x <= 0.082\nmse = 12.034\nsamples = 100\nvalue = -5.957"] ;
1 [label="x <= 0.02\nmse = 2.049\nsamples = 53\nvalue = -8.909"] ;
0 -> 1 [labeldistance=2.5, labelangle=45, headlabel="True"] ;
2 [label="x <= 0.004\nmse = 0.928\nsamples = 38\nvalue = -9.584"] ;
1 -> 2 ;
3 [label="x <= 0.003\nmse = 1.002\nsamples = 27\nvalue = -9.705"] ;
2 -> 3 ;
4 [label="mse = 0.899\nsamples = 26\nvalue = -9.632"] ;
3 -> 4 ;
5 [label="mse = -0.0\nsamples = 1\nvalue = -11.59"] ;
3 -> 5 ;
6 [label="x <= 0.014\nmse = 0.622\nsamples = 11\nvalue = -9.287"] ;
2 -> 6 ;
7 [label="mse = 0.324\nsamples = 9\nvalue = -9.13"] ;
6 -> 7 ;
8 [label="mse = 1.358\nsamples = 2\nvalue = -9.994"] ;
6 -> 8 ;
9 [label="x <= 0.037\nmse = 0.808\nsamples = 15\nvalue = -7.198"] ;
1 -> 9 ;
10 [label="x <= 0.029\nmse = 0.758\nsamples = 10\nvalue = -7.517"] ;
9 -> 10 ;
11 [label="mse = 1.037\nsamples = 3\nvalue = -7.077"] ;
10 -> 11 ;
12 [label="mse = 0.52\nsamples = 7\nvalue = -7.706"] ;
10 -> 12 ;
13 [label="x <= 0.064\nmse = 0.298\nsamples = 5\nvalue = -6.56"] ;
9 -> 13 ;
14 [label="mse = 0.331\nsamples = 3\nvalue = -6.78"] ;
13 -> 14 ;
15 [label="mse = 0.065\nsamples = 2\nvalue = -6.229"] ;
13 -> 15 ;
16 [label="x <= 0.274\nmse = 2.385\nsamples = 47\nvalue = -2.628"] ;
0 -> 16 [labeldistance=2.5, labelangle=-45, headlabel="False"] ;
17 [label="x <= 0.173\nmse = 1.116\nsamples = 22\nvalue = -3.877"] ;
16 -> 17 ;
18 [label="x <= 0.103\nmse = 0.359\nsamples = 11\nvalue = -4.638"] ;
17 -> 18 ;
19 [label="mse = 0.055\nsamples = 3\nvalue = -5.11"] ;
18 -> 19 ;
20 [label="mse = 0.358\nsamples = 8\nvalue = -4.461"] ;
18 -> 20 ;
21 [label="x <= 0.254\nmse = 0.715\nsamples = 11\nvalue = -3.116"] ;
17 -> 21 ;
22 [label="mse = 0.5\nsamples = 10\nvalue = -2.954"] ;
21 -> 22 ;
23 [label="mse = 0.0\nsamples = 1\nvalue = -4.731"] ;
21 -> 23 ;
24 [label="x <= 0.4\nmse = 0.921\nsamples = 25\nvalue = -1.529"] ;
16 -> 24 ;
25 [label="x <= 0.296\nmse = 1.487\nsamples = 6\nvalue = -2.5"] ;
24 -> 25 ;
26 [label="mse = 0.0\nsamples = 1\nvalue = -0.46"] ;
25 -> 26 ;
27 [label="mse = 0.786\nsamples = 5\nvalue = -2.908"] ;
25 -> 27 ;
28 [label="x <= 0.768\nmse = 0.35\nsamples = 19\nvalue = -1.222"] ;
24 -> 28 ;
29 [label="mse = 0.268\nsamples = 13\nvalue = -1.37"] ;
28 -> 29 ;
30 [label="mse = 0.379\nsamples = 6\nvalue = -0.902"] ;
28 -> 30 ;
}